的 -0.353206 -0.151027 0.636847 1.180223 -1.537612 0.518730 2.226997 1.996458 0.542503 -0.958980 0.730459 -0.768671 -2.664516 -0.035678 -0.315380 -0.559470 0.127827 -2.117221 1.475604 -2.519517 -0.914403 -0.775507 -2.033421 0.338278 3.485140 1.532322 0.087133 -0.833802 1.314397 -0.544969 1.263808 0.003737 1.560346 -0.411315 0.398378 1.017882 -2.029213 -1.166936 -1.447942 0.849150 0.726634 -1.064548 0.821619 -0.988111 0.324109 -2.254205 0.198668 -0.194940 0.893999 -0.604756 0.480401 -0.374991 1.250551 0.916367 -0.992250 0.119714 0.488396 -1.427927 0.456518 0.016406 -1.344268 -0.333535 -0.862391 -2.800565 -0.296308 -2.788386 0.516324 1.279871 1.091236 1.713988 2.086388 -0.203650 0.170509 0.519738 0.392929 0.863871 2.197778 0.491856 1.881007 -1.700898 0.691296 0.235672 1.561435 2.708289 0.399918 0.434478 0.177516 -0.921241 0.795913 -3.290936 -0.538828 -2.386661 2.011707 -2.542207 0.355540 1.706014 0.060089 0.600384 -0.234217 -1.401251 0.404711 -2.007364 -2.363678 2.137846 -0.913658 -0.553005 1.057418 -0.755202 -1.460217 0.114255 0.370165 -1.853347 -4.328552 0.279155 -3.817192 0.758691 1.473319 -0.740652 -0.242177 -1.218415 -0.153980 -2.040375 1.079109 -1.647190 0.323657 -0.440510 -1.395438 1.233824
在 -0.817150 -0.189225 0.064595 1.933144 -2.003371 0.173211 1.182522 2.321669 -0.058610 -1.355300 1.977199 -2.814869 -1.913782 -0.754049 1.566705 -0.202206 1.255179 -0.221452 0.389031 -3.137331 1.603046 -2.294282 -2.927302 0.895644 2.995163 0.894340 2.738033 0.059081 0.288921 -1.213299 1.634659 -0.919945 -1.813676 -0.741871 0.454754 0.197020 0.320122 -2.084818 0.792316 1.201963 0.962074 -0.503505 -1.342124 -1.936962 1.125290 -2.538170 3.030206 -1.658541 1.306225 -2.700582 -0.230699 -2.263254 0.268931 0.773865 -0.246131 -1.631951 -0.120030 -0.383814 -2.418960 -0.112155 -0.393530 0.366095 -1.729054 -2.143191 -0.088705 -2.017478 1.954799 2.748499 0.748649 2.651935 3.559992 0.610519 -0.087267 0.880484 1.241299 0.737598 0.832334 1.515672 1.689438 -1.100726 1.020614 -0.574144 -0.240126 1.980329 -0.894887 -1.002035 -0.031637 -0.191703 0.071172 -0.989993 -0.199458 -1.630126 -0.347552 -3.489879 -0.164412 -0.761880 1.485801 -0.558954 0.922851 1.712679 0.336964 -1.500368 -3.126745 2.074521 -2.231246 -2.102920 0.935753 0.871389 -0.604402 1.881535 -0.739128 0.273146 -4.459049 -0.209602 -3.891534 -0.209020 -0.805498 0.299400 0.402308 -0.664335 -0.906316 -2.459278 0.572899 -4.687841 1.495054 -0.906599 -0.651583 0.699905
是 0.242234 -2.029501 0.058722 2.429257 -0.433851 -1.070762 0.440260 1.469253 2.893470 0.526470 -1.471324 -2.976119 -3.617706 1.323673 -1.522427 -1.470261 0.933546 -3.084082 0.909740 -3.610807 0.447885 0.510072 -2.327007 -1.096414 3.324125 0.262628 -0.206637 -0.184452 2.024611 0.097331 -0.885680 2.089289 -0.669364 -2.335118 -0.407561 -0.068509 -0.104865 -2.558180 -2.993724 -0.273904 -1.793886 0.670853 -0.152470 -0.328034 -0.347560 -3.262795 -1.801887 -3.078188 0.171489 -0.215263 0.646637 1.275452 0.805942 0.513991 -0.816204 0.397211 -0.251021 0.487059 0.307296 -0.349760 -2.203300 2.203760 0.338999 0.535224 -0.127313 -2.612641 -0.186177 2.553972 -0.217692 1.117175 2.255480 1.504556 -2.203488 1.928816 -1.102087 0.637064 -0.796705 3.236600 2.411269 -4.180842 0.198981 -1.303466 2.557580 3.698861 1.839786 1.749211 0.467284 0.159130 1.135948 -1.537603 0.777616 -0.615996 -1.706034 0.463729 1.640020 -0.264964 3.661195 0.301986 -1.581859 0.557055 -1.091300 -0.560024 -2.502958 0.734865 -1.349431 -0.594008 0.291354 -1.299607 -1.182306 -0.078603 2.226463 -1.507268 -3.541771 0.587483 -3.516925 0.493594 -0.849370 -3.583169 -0.201469 0.279678 2.045847 -0.516514 0.419853 -3.773744 1.976894 -0.323987 -1.221379 3.589833
为 -2.872582 -2.151060 1.322091 1.700490 -1.513206 -0.126002 -2.281928 -0.304848 1.832613 -3.469058 -1.385557 -1.250577 -2.914728 1.110532 0.847170 0.234294 -1.654181 -0.329743 2.373633 -3.307679 1.375365 -1.918759 -1.847512 -0.302034 2.752974 1.950543 1.846324 -0.724444 1.559000 0.626581 -0.907786 2.208084 -1.399915 -2.116732 -0.024095 0.739255 0.302671 -3.040314 -1.041987 0.116334 -1.800660 -1.517647 0.514144 -0.029615 -1.273214 -1.848851 -0.646482 -2.073196 -1.259130 0.112917 3.044889 1.326032 0.782530 -0.380905 -1.175777 -0.359146 -1.612187 -0.142594 -0.410796 -0.844488 -2.136788 1.197196 -1.237866 -0.276155 -0.102167 -2.131734 -1.875272 -0.435591 0.311963 1.562217 2.067532 0.469535 -0.321664 2.108068 0.776748 -1.384373 -1.222766 0.126123 1.089285 -1.007770 1.251867 -2.940117 3.227864 0.912384 -1.111492 1.270092 -1.446908 0.928825 0.924000 -1.162490 0.455861 -0.991473 -0.974537 -1.099055 -0.935066 2.778414 2.876235 -2.158403 -0.914316 0.004210 1.712433 -0.346742 -1.352104 2.118351 -0.854575 0.506796 -0.209302 -2.673934 -1.445291 0.401685 1.336573 -2.242637 -3.396851 -0.252591 -1.759563 -0.559993 -0.041614 -2.873552 0.632204 -0.433276 1.086190 -1.871949 -0.707650 -3.480525 0.780055 0.779106 -2.090044 1.239076
年 0.656257 1.777480 0.641052 1.151422 -4.317871 2.565413 -1.263455 2.857540 0.049313 -2.360463 0.410821 -0.496134 -2.078165 -1.541517 -0.859014 -0.622488 -1.217812 -1.035101 -0.762149 0.970383 3.909403 -2.030601 0.769006 -0.861840 0.650467 1.404651 2.539580 -2.571735 2.330673 -3.086405 1.245672 -0.879201 -0.592205 1.505231 -0.140365 -0.362957 -0.128628 -0.960450 -0.477231 -0.056411 -0.366603 -0.876432 2.569942 1.455785 1.375194 -1.529642 -1.284631 0.141384 -2.045022 -0.901693 0.923628 -0.344880 1.796751 0.224895 -0.790302 -1.656385 0.460855 1.727558 -2.216240 0.150663 0.055676 0.301448 0.035325 -1.583176 1.119481 -3.376230 2.230704 4.285761 -1.462479 2.248514 -2.443775 0.124732 0.700087 1.034027 0.716861 -0.117217 -0.519392 0.288089 -0.213411 -2.470479 1.005255 -0.845604 1.025375 0.819134 -3.545900 -0.201981 -1.349592 0.468021 -0.768052 -5.288092 -0.098422 -0.908365 -2.251876 -0.217895 0.053775 -0.672648 -0.314159 -1.749500 1.531981 -0.668404 -0.451976 2.401625 -3.462049 2.665821 -1.382296 0.476009 1.399178 1.124425 -2.762202 0.930106 2.357016 0.429753 -3.204139 -0.944943 -1.335077 1.344508 0.459286 -0.239497 0.492380 0.457895 -1.177835 -1.684788 -0.049028 1.781691 0.461281 0.337487 0.259394 0.378894
和 -0.558529 0.521970 1.762212 0.862747 -2.043211 0.368718 0.564646 0.010227 0.526706 -0.236270 0.958372 -0.465323 0.554797 -1.356173 -0.306871 -2.437169 1.571914 -1.557591 1.259784 -1.425082 0.955162 -0.280263 -1.155701 -1.865223 1.679300 1.279463 -0.239155 0.242017 -0.284743 0.347381 1.399033 1.448703 0.072660 0.326514 0.020052 0.657251 -1.988659 -0.254028 -1.227823 0.505093 -0.384402 -2.309892 0.054118 -0.248673 0.381998 -1.616193 0.470138 -0.827052 1.486018 -0.528464 0.380141 -0.862831 -1.369530 2.058586 -0.058692 0.623153 -1.408348 -0.517117 0.248028 1.213710 0.096436 -0.557095 -1.190956 -2.634509 1.024266 -1.794938 -0.480667 2.210632 -0.111084 0.539915 0.816776 0.614895 -0.388446 0.205389 -0.198738 1.760269 2.747996 -2.099437 4.168194 -2.734908 1.996969 -0.631757 -0.382714 1.330598 -0.687966 0.881863 -0.357801 1.471063 -1.452513 -0.281180 0.037373 -1.690772 0.468597 -1.701600 -0.663185 -0.380388 1.441157 1.853474 -0.397050 0.135170 -0.664583 -1.130560 -1.667620 0.671337 -2.080106 -2.733767 1.675118 -0.947694 -1.277309 -0.233558 -1.870701 -1.267749 -2.210289 0.988195 -2.080785 0.790155 0.780717 -1.767470 0.170933 -0.692675 0.654914 -2.146064 0.011507 0.130352 -0.773993 0.794406 -1.105104 1.143360
了 1.385911 -1.227007 0.161033 1.752843 -4.326972 -0.993263 1.858875 1.894848 0.443249 -3.290490 0.253545 0.252763 -2.564070 -1.086895 0.225142 -0.639193 0.956500 -3.212912 -1.899094 -1.920869 1.703918 0.235353 -1.208367 -2.640780 -1.554176 -1.041418 2.325089 -0.098135 2.036446 -0.376248 0.782230 -2.275126 -1.295485 0.492333 -0.328468 3.171115 -0.741418 -2.843244 -1.698649 1.511880 0.068226 -3.125042 -1.696566 -2.024440 -0.486459 -3.042262 -1.294860 -2.067871 1.416955 0.014201 -0.478200 -1.863044 -0.699478 0.626703 -1.682870 -0.331992 -0.096164 -0.709928 -2.691499 3.915658 -1.381676 -0.722298 -4.057175 0.522298 2.148044 -3.427814 2.614393 3.115238 0.949219 1.851309 1.363591 1.557354 -0.641371 -0.708715 3.203927 0.587825 3.600435 -0.543986 2.741455 -0.475275 1.762944 0.023292 2.387983 2.231253 -0.359528 -2.072234 -1.036438 -1.487591 0.789008 -4.835672 -0.406998 -2.954730 0.961881 -4.691082 1.136398 0.086673 -1.253026 -0.124732 -0.115359 -0.169197 -2.378891 -1.060191 -3.048570 -1.163655 -2.124866 -0.910877 0.419114 0.666620 -2.644454 1.460480 -1.320129 -1.676494 -2.817306 1.311989 -3.506551 1.709360 0.089416 -2.283671 -1.151724 0.040401 -4.999972 -2.515198 0.343849 -3.562903 1.110024 -1.157436 0.220591 2.824334
小行星 -0.917614 -3.557552 -1.866025 -0.700268 1.316576 4.874473 2.007225 -4.124181 -1.377800 5.889349 -2.502544 5.750877 -3.316092 3.083491 -1.347817 -1.487324 -0.048904 -3.598463 -0.458472 -1.725735 0.711179 0.323264 4.509846 -2.781318 -4.588176 -2.119821 -6.968327 -3.415955 -2.740551 -0.104954 4.196197 1.978659 1.925070 2.609037 -1.595215 -0.670827 2.827583 0.967172 -1.479255 1.258034 0.886792 3.293927 -3.135129 -0.690107 2.589554 1.228344 4.853646 -2.950117 0.983642 -5.925328 1.474189 -0.990485 -0.575335 -2.183266 -3.163305 -0.763309 1.339070 0.296686 -4.147018 -2.614943 2.566759 2.656503 0.912316 -0.121663 2.499829 3.564596 -1.598553 -3.673150 -5.346056 -1.483108 -3.713546 -0.518304 5.246916 0.627411 -4.239394 -2.624993 6.270422 -1.174495 -8.730814 -3.317512 -0.522914 -2.098424 -3.857034 -0.648518 -3.491310 2.548219 -3.579952 -1.650925 -0.446722 2.151351 4.325280 3.229879 0.604693 5.321776 2.076633 -2.672377 -1.396263 1.233166 -1.685088 3.831274 3.048702 -1.739494 2.209678 0.116919 -1.238269 -0.644231 -3.992407 3.011659 1.488178 1.960095 -6.359603 1.879347 3.471758 -1.182234 -0.905382 0.968062 1.253608 0.153429 0.121239 4.606467 -4.898801 0.287879 -3.797609 -0.337024 -3.956426 5.498237 5.936392 2.680227
与 -0.521997 -0.753908 2.250219 2.645590 -2.857505 0.430053 1.073503 0.261459 0.697614 -0.734187 0.925477 -1.313010 1.369695 -1.725722 0.413255 -2.579297 2.214158 -0.723230 2.213377 -1.446813 1.572299 -0.358412 -1.156003 -1.332637 2.410030 0.848980 1.214629 -0.780939 -0.621940 -0.056472 0.225162 1.234737 -1.116175 -0.253435 0.004254 0.041530 -1.805785 -0.854417 -1.518268 -0.083776 1.249407 -1.862252 0.621293 0.171465 -0.339081 -0.866715 0.031205 -1.374815 1.355439 -3.012853 0.640411 -1.309456 -1.889751 1.965813 0.446267 -0.528666 -2.746349 -0.832024 0.547110 0.637409 1.090101 -2.149930 -0.993414 -3.583915 1.084339 -1.717911 -2.256320 2.363037 -0.249107 0.586992 1.628345 -0.402742 -0.457740 0.931215 0.440355 1.037160 1.383118 -1.188661 3.264632 -3.485791 2.983949 -2.269179 -0.802930 2.042705 -2.020807 0.309034 -1.062863 1.466959 -1.087721 -0.313363 1.657268 -1.477703 0.718338 -3.487550 -2.519185 0.425200 2.299075 2.663903 -1.485040 -2.009256 -1.322166 -1.169380 -1.763182 2.382498 -1.331354 -2.741179 1.939813 -1.310279 -1.457506 0.065888 -1.171443 -0.133162 -1.674839 1.127392 -2.112322 0.268841 0.626751 -1.625525 -0.314638 -0.074649 2.053118 -2.398514 -0.279927 -0.115167 -2.139539 1.139426 -0.576501 2.260766
